digraph Tree {
node [shape=box, style="filled, rounded", color="black", fontname="helvetica"] ;
graph [ranksep=equally, splines=polyline] ;
edge [fontname="helvetica"] ;
0 [label=<cxy &le; 0.475<br/>gini = 0.014<br/>samples = 1427<br/>value = [10, 1417]<br/>class = 是>, fillcolor="#3a9ee5"] ;
1 [label=<fxy &le; 0.105<br/>gini = 0.013<br/>samples = 1426<br/>value = [9, 1417]<br/>class = 是>, fillcolor="#3a9ee5"] ;
0 -> 1 [labeldistance=2.5, labelangle=45, headlabel="True"] ;
2 [label=<cxy &le; -0.575<br/>gini = 0.011<br/>samples = 1425<br/>value = [8.0, 1417.0]<br/>class = 是>, fillcolor="#3a9ee5"] ;
1 -> 2 ;
3 [label=<fxy &le; -0.005<br/>gini = 0.32<br/>samples = 5<br/>value = [1, 4]<br/>class = 是>, fillcolor="#6ab6ec"] ;
2 -> 3 ;
4 [label=<gini = 0.0<br/>samples = 4<br/>value = [0, 4]<br/>class = 是>, fillcolor="#399de5"] ;
3 -> 4 ;
5 [label=<gini = 0.0<br/>samples = 1<br/>value = [1, 0]<br/>class = 否>, fillcolor="#e58139"] ;
3 -> 5 ;
6 [label=<cxy &le; 0.425<br/>gini = 0.01<br/>samples = 1420<br/>value = [7.0, 1413.0]<br/>class = 是>, fillcolor="#3a9de5"] ;
2 -> 6 ;
7 [label=<percentage &le; 0.775<br/>gini = 0.008<br/>samples = 1412<br/>value = [6.0, 1406.0]<br/>class = 是>, fillcolor="#3a9de5"] ;
6 -> 7 ;
8 [label=<fxy &le; -0.075<br/>gini = 0.007<br/>samples = 1404<br/>value = [5, 1399]<br/>class = 是>, fillcolor="#3a9de5"] ;
7 -> 8 ;
9 [label=<gini = 0.142<br/>samples = 13<br/>value = [1, 12]<br/>class = 是>, fillcolor="#49a5e7"] ;
8 -> 9 ;
10 [label=<gini = 0.006<br/>samples = 1391<br/>value = [4, 1387]<br/>class = 是>, fillcolor="#3a9de5"] ;
8 -> 10 ;
11 [label=<fxy &le; -0.055<br/>gini = 0.219<br/>samples = 8<br/>value = [1, 7]<br/>class = 是>, fillcolor="#55abe9"] ;
7 -> 11 ;
12 [label=<gini = 0.0<br/>samples = 1<br/>value = [1, 0]<br/>class = 否>, fillcolor="#e58139"] ;
11 -> 12 ;
13 [label=<gini = 0.0<br/>samples = 7<br/>value = [0, 7]<br/>class = 是>, fillcolor="#399de5"] ;
11 -> 13 ;
14 [label=<percentage &le; 0.45<br/>gini = 0.219<br/>samples = 8<br/>value = [1, 7]<br/>class = 是>, fillcolor="#55abe9"] ;
6 -> 14 ;
15 [label=<gini = 0.0<br/>samples = 1<br/>value = [1, 0]<br/>class = 否>, fillcolor="#e58139"] ;
14 -> 15 ;
16 [label=<gini = 0.0<br/>samples = 7<br/>value = [0, 7]<br/>class = 是>, fillcolor="#399de5"] ;
14 -> 16 ;
17 [label=<gini = 0.0<br/>samples = 1<br/>value = [1, 0]<br/>class = 否>, fillcolor="#e58139"] ;
1 -> 17 ;
18 [label=<gini = 0.0<br/>samples = 1<br/>value = [1, 0]<br/>class = 否>, fillcolor="#e58139"] ;
0 -> 18 [labeldistance=2.5, labelangle=-45, headlabel="False"] ;
{rank=same ; 0} ;
{rank=same ; 1} ;
{rank=same ; 2} ;
{rank=same ; 3; 6} ;
{rank=same ; 7; 14} ;
{rank=same ; 8; 11} ;
{rank=same ; 4; 5; 9; 10; 12; 13; 15; 16; 17; 18} ;
}
